-8.773823932079020338e+00
-1.148689420479227286e+00
-2.653078732907255266e-01
-7.921110672990008261e-01
-5.189665756559259435e+00
2.436133111823465258e-01
-1.144737882263625828e+00
5.299329325415797598e+00
6.652580168223911627e-01
-4.383785206295658932e-01
-7.707665685249383003e-01
3.284093231566431736e+00
-1.113454834711660402e+00
2.385834780569935809e+00
-5.581986023011316078e-01
-2.750590096457531608e+00
1.726035492016831929e+00
1.653742672502373168e+00
6.308636171770199752e+00
-1.360493207600649734e+00
7.213205126329024219e-01
1.449358981529029089e+00
-6.769510292486540237e-01
-5.499975583928442546e-01
-1.580005757027562741e+00
5.977677606161725388e-01
-1.970000025917905573e+00
2.402540562314459560e+00
-1.501237664342117251e+00
2.279326308903854570e-01
2.259847995985889035e+00
6.035922158529451131e+00
-5.101740342636444048e+00
-3.443537636590291662e+00
-8.498940284397766831e-01
6.807059664679819377e+00
-1.097727837126774242e+00
-1.905916041617376067e+01
-1.029999999996283444e+00
-8.600000023841825048e-01
-2.199999999999985523e+00
-1.659376220712432959e+00
-1.628976647982242953e+00
-1.162332948695391011e+01
3.524700907136497918e-02
-2.251657941135349061e-01
-8.353788661743343225e-01
-1.729056922384464956e+00
-2.160058546180954941e+00
-6.711080216061706682e-01
-5.294926429201729512e-01
-1.739999999508085260e+00
1.104065816972008029e+01
-2.554442497924206190e+00
-1.773201710430322597e+00
1.295309693605675827e+00
-1.079989632854306825e+00
-7.804907051164034826e+00
-5.749965827515820527e-01
3.837304478639299576e-01
1.164291356660766885e+00
-6.994282467709933560e-01
-7.096072417920462616e-01
1.143659395164039339e+01
-1.320000152587879949e+00
1.459097937439562953e+00
-1.585280825960643680e+00
1.767276771735241392e-01
-9.121709724307789813e+00
-9.101927375894590666e-01
4.675680637348020863e-01
2.304195215834006216e+00
-2.639691166320540017e+00
-5.928826234601197953e+00
-3.159703352628838169e-01
1.144577944585126739e+00
-2.299999999999707001e-01
-9.200195693783392858e-01
-3.188296023208784469e+00
2.554470102980834323e+00
4.919816885490179703e-01
-1.619999999532033108e+00
-1.085383687011384213e+00
-1.274593350139446857e+00
-1.696200808034292296e+00
-1.104335158688779739e+00
-9.421726226740667620e-01
-1.301775641106490466e+00
1.996045688887062131e+00
-1.249999999999999112e+00
7.047935473267938900e-01
-1.099684646131990462e+00
9.753257232195169935e-02
-9.798437500745007522e-01
2.612911553925934438e+00
-7.089255787941235454e+00
-1.198240323682300268e+00
-1.721236760355185691e+00
1.590032788498996652e+00
5.722398433191921985e-01
-1.059607216127201434e+00
-9.545031838121731393e-01
-1.003151414263409480e+00
2.434751131400134105e-01
-1.809412549522287250e+00
-1.360000000001156950e+00
1.427624913098633153e+00
7.519297585652722660e+00
-2.748821537662871073e+00
1.963351483055458147e+00
4.114724176652187815e+00
-1.229999465892182453e+00
7.665741876663078047e-01
6.120320664805264377e-01
-2.602640595886342445e-01
-1.385144452490005129e+01
7.677615119350048589e-01
8.000000000116289089e-02
-8.727967437296086928e-01
1.471717762334046276e+00
1.559600895028554701e+00
-3.098763054579141141e-01
1.230592134083072509e+01
-1.991083868481180019e+00
-1.106980875428743438e+01
-2.964235895346728267e+00
4.114985539113721336e-01
-3.499998006650494875e-01
-1.745104744332277846e+01
-1.094997977689264879e+00
-6.667266446409335634e-01
-6.341496113057024653e-01
-5.462249318980354484e-01
5.251169767881717076e-01
-6.330937399156427725e-01
1.487328256958027062e+00
-1.202721872593396579e+00
-2.478640219940887235e+00
3.287165982057103975e+00
-1.369977161204624094e+00
-1.100000000000245226e+00
-1.350628975549995170e+00
2.434844523410205852e+00
1.656699555311881955e+00
4.987060659202766644e+00
-2.484970956559485966e+00
-4.353638526181577983e-01
-3.026349260097834915e+01
2.884261252354500371e+00
2.171228520405412254e+00
-5.198655997252793703e+00
1.110938230141659666e+01
2.714772938727676888e+00
-4.773436737062037860e-01
-5.580941152144413664e+00
-1.439324030562553647e+00
-2.039370993946757249e+00
6.683375530610220494e-01
-1.260000000074501969e+00
-7.611182084144477722e-01
-1.111663504672372849e+00
-4.533963125465974020e-01
-1.052434389368547052e+00
2.598435977219515802e+00
-1.202775082031653398e+01
-1.420000000000001927e+00
1.949999999999980083e-01
1.434251749314848223e-01
6.935480038062030061e+00
-1.800082370045086311e+00
5.952839059963324075e+00
4.712713670078928774e-02
-1.649995117187488924e+00
2.133654438159012123e+00
-2.141649932141571622e+00
-2.240000077226906416e+00
1.856430594342238116e+00
-1.819999997615805443e+00
-1.080000000000144844e+00
7.059494410887556803e+00
-1.090009765624994076e+00
-4.400195312489253996e-01
-1.636084473127270345e+00
5.191916430072038402e+00
3.713794056647146569e+00
-1.531223420136867519e+00
9.255410328866268799e+00
-8.492609558529259361e-01
-1.806000056547558907e+00
2.054567211835923057e+00
-1.289174445990049822e+00
3.864984337933486724e+00
-1.759999993542939123e+00
-6.583410519005092887e-01
5.115475148973467334e+00
1.018972764483737636e+00
6.600401620823126425e-02
-1.167102625000248528e+00
-5.032654563490375210e+00
8.048621303037960528e-01
-1.761546524441290451e+00
-6.800000751018459022e-01
-4.146981800723880118e-01
-9.245244284708553639e-01
2.049602876769094806e+00
1.299419929237967430e+01
1.315735911713647344e+00
-5.999999980579536762e-01
-1.592460923160247566e+00
-3.101372125669158430e-01
-4.658421638076077342e-01
4.853661821018876665e+00
-2.653761523827088631e+00
-8.199999233019469314e-01
-1.556267283276756608e+01
-1.116741283374029159e+01
-4.581114780926563990e-01
-1.924707949636288162e-01
-1.603703055630724683e-01
-1.368700575763333704e+00
-1.176952136473487398e+00
-1.479998204104787218e+00
7.540763671906159926e-01
5.022301544959365316e+00
-1.417575722292687024e+00
-1.989999999999997771e+00
5.533532295631182762e-01
-1.430000000000000160e+00
3.109320344985190498e+00
-1.479999031837010426e+00
-1.026106838195106619e+00
-7.882419459770045878e-01
2.109421122799041814e+00
-1.798749999999987859e+00
1.576410714850665418e+00
-2.979883338776789237e-01
-1.399999999391239758e+00
1.304330912441556078e+00
-5.549469441780684464e-01
-7.781161529220829154e-01
-7.312270333556949442e-01
1.514131243011297867e+00
3.596187083773608961e+00
-1.372826257220580271e+00
9.998964216427890239e-01
1.370297851566901759e+00
-1.590076306086630309e+00
3.117516374879741203e+00
1.124110193822236647e+00
1.875595812696375209e+00
-1.689999998590047570e+00
-1.595624999788378018e+00
1.761086030737931019e+00
6.007098905331091920e-01
1.921372396656957582e+00
-1.010000085836211703e+00
-1.754064979109961397e+00
8.199999993853208657e-01
-2.260000076293918525e+00
-6.430717811139424755e-01
-2.997671929278966640e-01
-1.419843749999964766e+00
1.814732700512818209e+00
-1.729971105763118633e+00
-5.262158065374696880e-01
1.448478295570264418e+00
-3.952065625636106638e+00
1.079827989779662190e+01
3.560829022547299938e-01
-2.698863699133312588e-01
-1.149966475419403000e+00
7.315264820477682672e-01
-1.785802312889999133e+00
-1.059454695744845187e+00
2.450849758221385066e+00
2.814072163704192331e+00
1.956926414769043499e-01
3.807267577620431775e-01
4.114573291681737910e-01
-8.500390624999957234e-01
-1.209999954323787374e+00
-1.699999999999953326e+00
-2.277349245779270337e+00
-3.810208663600769263e+00
-1.470931999662435530e+01
-4.236260998850892356e+00
-1.369999999999998996e+00
-1.405035880164600570e+00
3.425027123049554367e-01
-4.916950261093202990e+00
-2.259053825399497839e+00
2.654368323725953549e-01
-9.699988977851380367e-01
7.199905879660243452e-03
7.483186796693278353e+00
-3.697902950318872062e-01
2.032950163411273992e-01
2.618289483022517850e-01
-1.734695877951069054e-01
-3.386166652314047676e-01
-1.269999999999956497e+00
-7.989531398117550864e+00
-1.360000000000205933e+00
1.137770954781440746e+00
-2.209999999999974207e+00
2.495740386800377575e+00
-7.000002214753222596e-01
2.916367192414983656e+00
-1.459999999925412073e+00
8.999992164997832056e-01
1.615363150313292140e+00
2.991568790847835557e-01
-8.798643030204813531e-01
2.296967714816331441e+00
-2.925684668836145974e-01
-2.105890311177632057e+01
2.612506272651325401e-01
-1.180000000000000826e+00
-1.208126562729054942e+00
-6.223750591588556702e+00
-3.699734337431726416e+00
-1.549999999999810418e+00
-1.349999741856424018e+00
-1.409687500074499278e+00
-3.979487401856937279e+00
-9.574921198275700984e-01
-2.919737448384888356e+00
-1.325058586603126365e+00
-1.045452030707923807e+00
1.237756101911853923e+00
-9.475073288892764678e-01
-3.430813976732691728e+00
-3.341378252739818588e+00
7.270702124558220625e+00
-7.946170729919614928e-01
-1.324270684033261425e+00
5.123206134534791928e-02
-1.649995117187494920e+00
-2.424935051605041192e+00
-1.068732451796789995e+00
-6.195151153741400574e-01
4.002774835907751405e-01
-9.099658215237635961e-01
4.179429344072424612e+00
-1.004629500359275562e+00
2.101816253574614102e+00
2.619289176083750004e+00
-5.929755354431988756e+00
-1.590019531249990292e+00
1.269980468825510744e+00
-1.319804620482591506e+00
-4.940953253302392767e+00
3.100302218261776280e-02
-1.109882912250020670e+00
-1.021603710127523179e+01
3.707492262365296831e+00
-1.245637342471903164e+00
-2.579999999999966320e+00
-4.546186200440276437e+00
3.241089668680582569e+00
5.108246384197435930e+00
2.194310916152458102e+00
-1.511283854221829648e+00
-2.750000011920897269e-01
4.133276381926223486e+00
-6.138736864044735064e+00
-4.686878051681099500e+00
-1.862187392967906696e+00
-5.787900366859375367e-01
1.140000000000026770e+00
3.500718074062308727e+00
-9.818414221369215156e+00
3.279135894498502513e+00
-1.439999514557667837e+00
-1.314368151847947974e+00
-6.078995038378827154e+00
-9.755410724505798603e-01
-7.470224902875098216e+00
-2.161397500995110743e+00
3.133772446932983624e-01
-1.799999999999999600e+00
1.249421490867279383e+00
-1.639999999999997238e+00
-1.260000000000002451e+00
-8.678987909248487842e-01
-1.534622451063031789e+01
-5.010560777639800456e+00
3.951250223665072614e+00
-1.219936830016554730e+00
-1.591634882036612852e+00
6.466024686050618975e+00
1.339199971282086121e+00
-6.598683110686024422e-01
-1.258601003446177424e+00
-1.563598632847295944e+00
-4.675722491189343577e-01
-1.670019531249955724e+00
3.570349641966988230e+00
-1.299999236484972731e-01
1.388178846914177589e+00
2.902308633901705459e+00
-1.605237426029626935e+00
-9.312680374958805629e+00
-1.798454842865825132e+00
-6.430039915412957718e+00
2.030824665707454457e+00
-2.499237983964173182e+00
-1.294273771382642435e+00
1.472705174704924236e+00
-5.299999996510995626e-01
-8.317986744744343852e+00
7.206930535853562914e-01
-1.459992622377390470e+00
-1.249907383543214401e+00
3.897279047146509523e+00
2.979079229753792912e+00
-1.178579444049945080e+00
-3.768975626380749588e+01
7.806917826573277208e-02
7.948591392721026772e+00
2.906238235783979107e+00
4.559419673540499929e+00
-1.110405970859730029e+00
4.695812856399260049e+00
-4.073561122839846504e+00
-1.527804048571828499e+00
4.948596334399844587e-01
-4.671090764852506294e-01
6.100314220365719464e+00
-1.530009154677969052e+00
-1.056870304593625770e-01
-5.483323202414467801e+00
1.282708178351177342e+00
-1.124118968848234701e+00
-1.132335860646973114e+00
-1.144309775334025447e+00
2.187378094971766718e+00
-3.391571453216830623e+00
-6.497423112582627613e-01
5.217041869934835319e+00
3.782215060040179821e+00
-1.000000000000000000e+00
4.480367330091572065e+00
1.284469510495692468e+00
-2.222508526367476023e+01
-7.817324989480306741e+00
-1.380525109876281853e+00
2.647841363886252464e-01
-1.203032718975519444e+00
1.996105228992342440e+00
-2.398869167094663524e-01
-7.314283405317235642e-01
-4.125827151626931588e+00
-4.794537855730461318e-01
8.022987310720758325e-01
4.996759150967654967e-03
-1.282345866522683409e+01
1.103714785995405956e+00
-6.707298719335117454e-01
-2.879401463858943799e+00
1.103820226242462343e+00
3.636266143640370929e-01
1.028146340276209908e-01
-1.429999971389488200e+00
-1.199999800589356624e+00
-1.449999999999982858e+00
3.669665234060656811e+00
-2.545982925145399811e+00
-1.169999999511426081e+00
2.025139451312854000e+00
-8.381411327684658019e-01
-4.908292884322295713e+00
1.304561034388134755e-01
-8.151635409814511624e-01
-4.301646031717640817e+00
-1.169960937418052849e+00
3.021880358327857952e+00
-1.502427335538346398e+00
1.750887752007413312e+00
-7.329819480699762968e-01
-1.327972247488807267e-01
-1.639949329291140678e+00
2.097677081184355363e-01
2.542507131655989294e+00
-2.644680028744757383e+00
-1.749207503500168404e+00
-8.453023497639073902e-01
-1.469999999999997309e+00
-1.300000153180510765e+00
-1.330000002384218671e+00
9.793653876394481372e-01
-3.660381957880575854e+00
1.448985056005355654e+00
-1.686986345124189768e+00
1.917918671247611229e-01
-2.693831981538280740e+00
-1.138989650737967985e+00
-1.288868496389289353e+00
-1.870005106920080484e+00
-5.099982530708185857e-01
4.689694464323295175e-01
-7.867303744580841141e+00
-1.340004882812492637e+00
-3.198844009368465802e+00
-6.038342478756484333e+00
1.350899869678310994e+00
3.753226582851198589e+00
-2.828464874420015263e-01
-1.549997329874685636e+00
2.274167076965709189e+00
4.754362460700820137e+00
1.092531373544455064e+00
-1.010002846168575941e+00
-1.973062883126166733e+00
6.653675423855168747e-01
1.231197177393432618e+01
-1.150465890120772938e+00
-7.268442391804239122e+00
-1.019999999925478962e+00
1.234332001067599105e+00
-4.458040554510965592e+00
3.555934984453978931e-01
6.300723549305328852e+00
-7.899941946846928964e-01
-1.465495467116397998e+00
-1.169981941559143479e+00
-6.650281855743594983e-01
-1.299682620091221930e+00
2.961432995255015507e-02
-1.731160019345435730e+00
-1.149999993725271619e+00
-7.946651816261821599e-01
3.904265636064909284e+00
-1.270002251738623800e+00
-6.519259557589123233e-01
-4.379406099309413491e+00
-4.611757787775257467e-01
-4.797222047380829690e-01
4.188188818715957856e-02
2.676558206043016419e+00
-2.399241867022380958e+00
-2.209516274660609181e+00
-1.699971804552441901e+00
-1.540663757287288993e+00
4.473205620336098143e+00
-1.205288598264003586e+00
-1.201661344048412516e+00
-3.160920410156217386e+00
-3.500001611290054493e-01
2.845212873167485945e+00
-3.221837142263834863e+01
7.303360195051457282e+00
-8.865670133472164594e+00
2.810005058657332633e+00
-1.302355435966076724e+00
2.450075208686443240e+00
2.110657655568694835e-01
-2.218393182324092905e+01
-9.633264895423782059e-01
-5.277651462184066444e-01
-1.679999999999997273e+00
6.550501154070330623e-01
-5.982046941446292898e+00
-7.600000000000035616e-01
-4.068966642042116666e-01
5.655272155273639578e-01
1.766177976420331364e+00
-1.069922839599240172e+00
-1.800019531398724837e+00
2.412979957921546514e+00
-6.580471819408072243e+00
-9.277330266870775777e-01
-7.534197236716536628e-01
-1.721999292646968910e-02
-1.944647492426548441e+00
-1.250475499992550699e+00
-8.549218368518651801e-01
1.365284537313573854e-01
-1.650000065210838418e+00
-1.540000000000000036e+00
6.059577573197855171e-01
-1.006798057709618721e+00
2.190019830492394792e+00
-1.059634567614872758e+01
-5.397554170294394105e+00
2.286203172063382638e+00
-4.433505151956091517e+00
-1.389997568130200811e+00
-6.296891021751980233e-01
-1.078001187801236153e-02
-8.296322376600435700e-01
-1.437534177942361380e+00
5.532465938449867338e+00
-5.071983710990252803e+00
2.491562201384825315e+00
-9.076279257347834584e-01
-9.850571859306199940e+00
-9.615228286917415490e-01
2.721921426447581283e+00
-9.399978755742536274e-01
-1.767499999999989857e+00
-1.319374961830892978e+00
-1.200000076299819307e+00
1.579740700181554436e+00
-1.449999999999990186e+00
-5.180708129004149010e-01
-7.864467522139900746e-01
1.889664162606579934e-01
1.020163529507892797e+00
1.361733730763985406e+00
-2.750088850493199316e-02
-1.442766541776000500e+00
4.728200703136558936e+00
1.801966611092137072e+00
9.324070312472716449e-01
2.295599495612398844e+00
-1.029980468684760897e+00
-2.419439734156409472e+01
-2.270020554911541311e+00
-1.375000004768370365e+00
-1.503775075280731954e+00
3.210484355187825933e+00
2.224663091297407025e+00
5.581232683170070930e-01
-4.000793459010471009e-02
-1.881237223519779844e+00
-3.531384636941289568e+00
-4.381299165432975817e-01
-1.559999999999991394e+00
-7.605000203825447169e-01
-1.205004807710323256e+00
-4.284004534341126491e-01
2.442025197387009516e+00
2.132192130072963376e+00
1.777036557738213673e+00
4.336191501413211746e+00
2.205018173916421798e-01
-1.235843649419407164e+00
9.005136120226993057e-01
-1.117733405306300526e-01
-1.649999999787934657e+00
-3.455320268885169810e+01
-7.335925063230773757e-01
2.904688012504814232e+00
-1.243035191009868479e+00
5.000007722366527768e-02
-1.006505162793605557e+01
-1.487742173316139116e+00
-1.480004882812500089e+00
-2.671980940380026467e-02
9.485877817841558146e-01
-5.181298682046145965e-01
-1.221541878911362122e+00
-1.662907486850142336e+00
7.539275969224773277e+00
-9.287241069337492050e+00
-1.410659866890631609e+00
5.064680645058939668e+00
-1.188876544166746818e+01
2.481584479982672231e-01
-1.741857604319216657e+00
-7.074632946224911345e-01
-1.347720044089542935e+00
2.239940894147578021e+00
-2.399987650850770038e-01
8.134517591609393694e-01
8.806774629649099850e+00
-7.611440400651297011e-01
-1.939821909109163967e+00
1.799957276135745743e-01
-4.666884197811769774e-01
-1.212420319583179112e-01
-1.664186178433483221e+01
-5.324905837453437485e-01
3.518665708720687846e+00
-3.317547424998656957e-01
2.140060247868206034e+00
3.021203917175864007e+00
-1.503124999744018142e+00
2.376288379906728920e+00
-1.789370863601877915e+00
-1.259999999999999343e+00
1.421710127845019933e+00
-1.268548869266011625e+00
5.305950509821859562e-01
2.380007049183018530e+00
-2.020607481003682260e+00
-2.312990256501104014e+00
-7.113990615642173942e-01
-2.417479609311569355e+00
-3.765669472080952485e+00
-3.577622816443744913e+00
-8.515629167208390582e-01
-1.455000000000001847e+00
1.041912018151204755e+01
-9.400000000000006128e-01
-1.116546605429282080e+00
-5.699999999999988409e-01
1.571032814019060808e+00
9.455490338694421126e-01
1.875866304832804365e+00
4.037612791491921094e+00
8.020320277803065778e+00
3.302845274915775647e-02
-3.323288214277734465e+00
-5.299904093706512276e-01
-7.920450133630166256e+00
3.683948484426936149e-02
-1.969779936076112847e-01
-2.039957197188038140e+00
-2.442230596432301670e+00
5.364555358314226474e+00
2.642594622173509933e+00
6.620959826103013368e-01
6.319397455388456875e-01
-1.499999999403947459e+00
5.899949135315817328e-01
-9.533751042037602375e+00
2.403330160618465161e+00
-3.109722372016646474e+00
3.744053536981245323e+00
2.385826453004299408e-01
7.573858478199611000e-01
-3.525525302324167831e-01
5.390817878824483156e-01
-4.765694859626661284e-01
-8.569050353726941349e-01
-6.210453937282608194e+00
-1.352634521397363399e+00
5.795654921783962799e+00
5.759919862232589338e+00
-1.809597994454907210e+00
-1.760002602868544930e+00
-9.599996208397215680e-01
-8.375009914862177052e-01
-4.109413299525003893e+00
-3.141455578396583181e+00
2.216432109807351392e+00
-1.000625001192090746e+00
-2.176114730835004618e+00
-1.168376987941002865e+00
1.474654612628169548e-01
5.638727558634874626e+00
1.618901264885811431e+00
1.351133791099293990e+00
2.725903119002841102e+00
-8.859592099489429495e-01
2.656139569879533813e+00
-5.069675218885802970e+00
-1.419999999754531173e+00
-1.260003386718140606e+00
-8.788078383883069833e+00
-1.821249999999994262e+00
-2.696878051781407826e-01
4.408387993025903562e+00
-6.940705336206234755e+00
5.396229669032778092e-02
7.790786424875041583e+00
-7.221731037999757241e+00
4.355376850808439504e-01
-1.404309241051960200e+00
3.235999147426019906e+00
-1.390004865727473726e+00
-4.492081711019693668e-01
2.990298635069929656e+00
2.291464997801087866e-01
4.782049796980680334e+00
-1.095311298976265890e+00
-1.946911308600768331e+00
1.842157804976854774e+00
-2.899999999961366814e-01
-1.654066370711012368e+00
-3.985887128564230775e+00
1.390746240114590249e+00
-5.322258668851559404e-01
-1.371499906564113935e+01
-2.899570247772143561e-01
-6.727423754848215198e-01
-2.234895980524555792e-01
2.311245859561625871e+00
-3.860788327295247568e-01
-1.601625874582523679e+01
3.061300814371363810e+00
-9.171880100094962351e-01
-4.927658734954428965e+00
-1.568593445800177122e+00
1.295539509129304045e+00
-1.420144598893781751e+00
1.011061986911076183e+00
5.328173511513336180e+00
-1.109949193267505851e+00
-3.920910316763822623e-01
-9.198398408599391951e-01
2.091261569120844044e+00
1.541340155521987221e+00
-1.125009775273171586e+00
-1.066941731692590434e+00
-3.590631102769825667e-01
-1.760743115468299536e-01
-1.377127138244026661e+00
-2.698896325305745747e-01
1.269951577451918112e+00
1.506558040023567191e+00
-1.820019531250000488e+00
8.963138210729229005e-01
3.673265121536201661e-01
-1.393859427983246135e-01
1.500909553443056543e+00
4.510521527524868013e+00
-1.905830432199384916e-01
-7.422824874461618760e-01
-1.144436464338118409e+00
-1.033626866597532334e+00
3.524336818251072589e-01
5.846890448629734394e+00
-6.565705377615729255e-01
1.016817610800765603e+00
-2.120000209218389386e+00
-5.547867497318286212e+00
-3.099999958008603507e-01
4.300282372455432878e-01
1.382840393294411552e+00
-5.239883296710932115e-01
2.379159443902596482e+00
-5.560853887976196397e+00
1.823834096689146866e+00
-3.759078498212200525e-01
-3.000332864369017333e-02
-1.319595676898601022e+00
1.716321217092662721e+00
7.131870789112231268e-01
-3.537898417700039988e-01
-6.436865067900154891e-01
-1.069643928028569446e+00
2.830700699698764478e+00
-5.202237926705071125e-01
-9.350048814032634326e-01
3.670580777729077759e+00
-5.175213619220470074e-01
-4.379985808792276281e+00
-1.172709328874623536e+00
-5.348495717983282383e+00
2.299273387722847062e+00
2.264328858069547756e+00
-4.031197470424536800e-01
3.276388001333010447e+00
-1.510824814218254764e+00
-1.209999999403974069e+00
-4.336604904060627597e+00
-7.775000061787422645e-01
-5.199710392304554007e-01
-1.058797966991039008e+00
-6.097525447517501362e+00
-1.549760020283044382e+00
-1.866516029393203269e+01
-2.592674058809094184e+00
4.359985690602941943e+00
3.148332108000291729e+00
3.998195706161836865e-02
-3.815252977017435931e-02
-5.017829975476768567e-01
7.146709397397034813e+00
-8.211325721269030486e-01
9.844347426517398303e-02
1.348112310294606875e-01
2.664527372475187228e+00
-1.559687464553948022e+00
-1.338769355058578858e+00
-1.740119643178928754e+00
1.512676045427095994e+00
1.059116202215768937e-01
-2.190307004396619739e+00
2.743883337583755022e+00
3.033809327494795038e+00
-1.606454564731598644e-01
2.161964326305360728e+00
3.676954427542907577e+00
-8.882229751065583656e+00
-1.459999999999917586e+00
-1.358842923932466418e+00
-4.425070309993336393e-01
2.689148894442995985e+00
-1.706823428707870405e-01
-5.028651105684068812e-01
7.508567336726743036e-02
-6.639043939397626382e+00
-4.400003141984987209e-01
-1.309999999999998943e+00
-1.399741056542837425e+00
-8.097690104396149113e-01
-4.449689570724803644e+00
-1.055000199336172173e+00
-8.164582470930435321e+00
-3.014880714410866247e+00
-1.239999999999998437e+00
-8.887499999999642908e-01
-1.071021576453074164e+00
-4.259629687783829333e+00
-3.496875178809664142e-01
3.032028239954369209e+00
-9.649816330200818859e-01
-4.945495848939919781e-01
3.691754188070225151e+00
-1.229340674368692848e-01
-9.595151158774996025e-01
-1.829999999999997851e+00
-2.043694835546913335e+00
-3.399976927993271225e+00
1.371035468364760312e+00
-8.918237074091887706e+00
-2.720566569427613768e-01
-1.100024414900652864e-01
-1.071188038923447383e+00
1.416126235472899009e-01
-1.851433210236696603e+00
-2.028737481834226752e+00
-1.271504991935664686e-01
-3.135915371154664122e+00
-1.394839928245175775e+00
-9.297423112396363543e-01
-1.199999999999990630e+00
-9.218389278320035629e+00
1.809333527226736127e+00
8.226251813361713516e+00
-4.840535734730522233e-01
-8.203101226175875116e-01
2.846902459114743489e-01
-2.798975511916166892e-01
2.418773281110319751e+00
-6.001847214980458034e-01
4.395083908378581428e-01
-2.930988730229171058e+00
1.859318692993874977e+00
5.499792291214564699e-01
2.130002135490856041e+00
6.174641793642718035e+00
3.384707727425396051e+00
1.230137378151642702e+00
-4.674951192759558838e-01
-1.450559708497346501e+00
1.470470157111101184e+00
4.325838214079416488e+00
-1.470019531249991074e+00
1.646560053722913863e-01
-5.998193060683620903e-01
-5.794885397763878565e+00
-7.077995960290276445e-01
-1.690458810264614531e+00
7.107241541402995466e+00
-1.129065053698088406e+00
1.099999983041494017e-01
-1.320019531249855715e+00
-1.060025983984537179e+00
-4.403424071265634732e-01
1.861500993753899769e+00
-1.690314721910896933e+00
5.975452577613515892e-01
-1.129975651011913884e+00
-1.030000000000030891e+00
-2.606838396014850900e+00
3.649988770484506317e-01
-1.579946950334163436e+00
6.800000000167580883e-01
1.806990324139910786e+00
-9.634168343266410472e-01
-4.632332726973832360e-01
7.683363609078289191e-02
1.476664978060759692e+00
-6.899999999999989475e-01
-9.607020459125470424e-01
-9.506250000069846884e-01
-7.717358826994300536e-01
-7.741209430757484133e-01
6.259237319161918833e+00
-1.259999999999985132e+00
8.861968084764791698e+00
1.222379589553926893e+00
-1.700148508412274995e-01
-2.592686359635653304e+00
5.552417482831068618e+00
-8.800015203528501750e-01
1.799787725779456782e+00
-3.162905392661876647e+00
-4.800000023748628997e-01
7.632004711813603626e-01
3.669059484097308976e-02
-2.597518941430107642e+00
1.750889989190710372e+00
1.461225754622599515e+00
-1.920018885967163413e+00
-2.300106413348033951e-01
-1.262500000000005729e+00
4.809178254295981780e+00
-6.932285167563135841e-01
3.700048471585642984e-01
-1.155625304696408229e+01
-3.470975152574917288e+00
4.130798581155341154e+00
-8.012705321229878219e-01
-1.511490591809947492e+00
