-6.449999999999985967e+00
-6.489999999999988667e+00
-6.409999999999903331e+00
-6.610000000000002984e+00
-6.569999869215487287e+00
-6.465076145489052628e+00
-6.549999999995691269e+00
-6.769996879905251674e+00
-6.389515113135053603e+00
-6.769999999997346585e+00
-6.289999583237575465e+00
-6.860000000000000320e+00
-6.649999999999982592e+00
-6.499688185009792285e+00
-6.649999092745413343e+00
-6.639999988408637144e+00
-6.459996591092780349e+00
-6.649999999998833289e+00
-6.839999998260165803e+00
-6.559999985689724866e+00
-6.429999999999986393e+00
-6.539999999999985825e+00
-6.639999999998640767e+00
-6.699999999997752198e+00
-6.399995292704817373e+00
-6.759998524366690020e+00
-6.549681865724449104e+00
-6.589999999898785710e+00
-6.519999294209176455e+00
-6.499997975811696804e+00
-6.589999999764954097e+00
-6.518609358024168188e+00
-6.609999998260167153e+00
-6.599999993578720137e+00
-6.439977161204883060e+00
-6.340000000000000746e+00
-6.479999572706644173e+00
-6.497295187491156199e+00
-6.761126378703043116e+00
-6.681748945073441526e+00
-6.830105065105522399e+00
-6.775970053951508199e+00
-7.091873057302546357e+00
-6.959990437035719957e+00
-6.614107000527617686e+00
-6.652561647333969930e+00
-6.637312594837795565e+00
-6.250005762172736290e+00
-6.599762517147960139e+00
-6.219999999999972218e+00
-6.209999999999967990e+00
-6.479999999976749692e+00
-6.639999954398226656e+00
-6.599986513919694708e+00
-6.479999999999949800e+00
-6.359999999999955023e+00
-6.299999985689684223e+00
-6.579999999999960991e+00
-6.569999999988921147e+00
-6.539999016451791825e+00
-6.349999999999984546e+00
-6.609999882293980278e+00
-6.604573281618547398e+00
-6.716865826475810763e+00
-6.567150663084330375e+00
-6.588813630330689008e+00
-6.578042126220958075e+00
-6.176519460565053521e+00
-6.444386765260617267e+00
-6.789640008656265380e+00
-6.378249253363032167e+00
-6.449941363261193494e+00
-5.774922686244108760e+00
-6.221863906977218583e+00
-6.045992623914318465e+00
-6.078016656173385712e+00
-6.294231193739197039e+00
-6.363265666153017364e+00
-6.494536302609576595e+00
-6.270573864395409203e+00
-6.179189395556794473e+00
-6.280000036933087060e+00
-6.359999999999998543e+00
-6.609999999933119597e+00
-6.459999999999961773e+00
-6.499999999999943157e+00
-6.279705443395278586e+00
-6.849999999999888622e+00
-6.439999999999999503e+00
-6.314705468695904322e+00
-6.705107648694117017e+00
-6.892132154197927463e+00
-6.720325149676478205e+00
-6.922725389761006376e+00
-6.548865497028490523e+00
-6.683685839874024204e+00
-6.864315261400803614e+00
-6.368649560296188561e+00
-6.241053611974598958e+00
-5.287485419655904906e+00
-5.629979879926533037e+00
-5.558096174939787915e+00
-6.106611469728628450e+00
-5.960602056583363506e+00
-6.076386221078183603e+00
-6.576239210814233793e+00
-6.975829188479392151e+00
-6.955158158653643063e+00
-6.539960972938950512e+00
-6.387383298746510896e+00
-6.600078124999958717e+00
-6.499999999999976907e+00
-6.519999998577038269e+00
-6.699999999999959321e+00
-6.693920987867857164e+00
-6.329992848844349318e+00
-6.421249962319388160e+00
-6.279849156042861757e+00
-6.251622770379963612e+00
-5.991701670340242813e+00
-6.253837630506483336e+00
-5.512443792407442089e+00
-4.231430968351355126e+00
-2.907055635044780040e+00
-1.779805714400514383e+00
-1.125753909550655019e+00
-7.412453612331736386e-01
-3.145661928251067829e-01
-7.649126806147517055e-01
-9.983141994446094181e-01
-1.852235334608474782e+00
-2.443668809100477457e+00
-3.210119817215975502e+00
-3.975329306722114708e+00
-4.802798137459877381e+00
-5.631098761314924595e+00
-6.287616529449278957e+00
-6.211382631735182791e+00
-6.078805365182192055e+00
-6.419999726562110709e+00
-6.639999999999994351e+00
-6.469999999999954454e+00
-6.510312449331427942e+00
-6.237368420979600536e+00
-6.454088031026766537e+00
-6.098263196811258169e+00
-6.250963771627671584e+00
-6.053914977779466078e+00
-5.805741973544192192e+00
-4.877186907473568311e+00
-2.918687521446457378e+00
-1.589119832221005169e+00
-2.214653973614887916e-01
6.699412904676280700e-01
1.027146436607896174e+00
1.110500656358968330e+00
1.077566376869868670e+00
2.475482520074799575e-01
-7.136853838144958662e-01
-1.632623157201811726e+00
-2.252883766355187944e+00
-3.462417576275708342e+00
-4.025479387307930423e+00
-4.902458870886110098e+00
-5.539378759689954634e+00
-5.881306576676165854e+00
-6.130376264003314368e+00
-6.530000000000010907e+00
-6.449999999999961098e+00
-6.599999999999982769e+00
-6.449999999999869615e+00
-6.306306940217512924e+00
-6.281732352372746853e+00
-6.121504545353951166e+00
-6.067850132114898543e+00
-5.876027508777543318e+00
-4.957465642690044305e+00
-3.735308817389581204e+00
-1.266289775450379684e+00
-1.950573854895169268e-01
7.404955480700413650e-01
2.464227945767960115e+00
2.361918419376945799e+00
2.018215830444770820e+00
1.800218111533328669e+00
1.828788755369927355e+00
-1.299767038989786960e-01
-7.805392143577870590e-01
-2.068977982008406880e+00
-2.051883856262331829e+00
-3.434317065040722206e+00
-4.451304197314254196e+00
-5.266987372490525843e+00
-5.572674482958008824e+00
-5.873778144060221251e+00
-6.309999999999964970e+00
-6.699986513894008233e+00
-6.599742311239600312e+00
-6.682518099725480276e+00
-6.452269409556559587e+00
-5.778342219219536169e+00
-6.506871602896899809e+00
-5.745102367802052967e+00
-4.852344588013655979e+00
-3.552401826445740873e+00
-2.020341223512918560e+00
6.229946209968395543e-02
1.421401786067675976e+00
2.443478490509712220e+00
2.365633189730594665e+00
1.740842461955691256e+00
2.013580432869809922e+00
2.253215514093837690e+00
2.202441646744852211e+00
1.288891174803148632e+00
3.580043440145704026e-02
-1.197439799151434281e+00
-2.068420594110497834e+00
-3.262236858837736175e+00
-4.282570138397828963e+00
-4.733001052841380840e+00
-4.758372656292455538e+00
-5.524808850795870363e+00
-6.185923732234072325e+00
-6.429952249752454385e+00
-6.529999999977393443e+00
-6.470110391074247680e+00
-6.094194984644861535e+00
-6.375760187981089899e+00
-6.026806888511991644e+00
-5.260105780580253132e+00
-4.481318375158781286e+00
-2.818477753001949360e+00
-7.618076377946733091e-01
1.186283927067841804e+00
2.240832448005090516e+00
2.493556525272538682e+00
1.837213001677838520e+00
1.600930074495784394e+00
1.482063503054694920e+00
1.912081520666632617e+00
2.154008597099559275e+00
1.991865060476003313e+00
1.475297568205560683e+00
-3.960220666622012442e-01
-1.411395196346352243e+00
-2.713010562547192528e+00
-3.593876856545854981e+00
-4.446923010807709353e+00
-4.624135270918527496e+00
-5.308741478860420138e+00
-6.259994194559733494e+00
-6.399953699408206020e+00
-6.914997817403109259e+00
-6.738747224902410515e+00
-6.683301102458416132e+00
-6.317876926439915053e+00
-6.391184508218278992e+00
-5.608323350980057853e+00
-3.696591651374273368e+00
-1.943440818106044521e+00
8.940468155725282973e-01
2.724217510339876025e+00
2.872806244303874212e+00
2.135766689634693627e+00
1.415033359740740959e+00
6.423127094247077506e-01
1.067006617362869836e+00
1.424836279863959110e+00
1.951523839753013245e+00
2.732181383062883828e+00
1.461768869003678084e+00
-9.314148276653319569e-02
-1.633617199132367137e+00
-3.324125182430937020e+00
-4.131269630571703821e+00
-4.345128958856264489e+00
-4.451680827617036762e+00
-5.474356851950637370e+00
-6.110000000000023412e+00
-6.740000012879242774e+00
-6.604929380844568598e+00
-6.344746007197723081e+00
-6.563678772002439210e+00
-6.844364107619340665e+00
-6.943692129488793441e+00
-5.049133820776290804e+00
-3.190869114895741987e+00
-4.856906112038796852e-01
1.712511958414814961e+00
3.122092033269013633e+00
2.484666774150865454e+00
8.688002262523276675e-01
-6.039780413175847851e-02
-4.259751008921685012e-01
8.281468458779814301e-02
1.521349786887524091e+00
2.051017274638812449e+00
2.177458531352130855e+00
1.485693712154416257e+00
-1.789753616082841725e-01
-1.624337432761037370e+00
-3.197196269181372230e+00
-4.758118472456903447e+00
-4.821071335301942540e+00
-4.907362066281678814e+00
-5.478920524179441642e+00
-6.349999999999014655e+00
-6.660000000037215706e+00
-6.739713679155009629e+00
-6.530564679844780507e+00
-6.319471106653502090e+00
-6.677589983037688803e+00
-6.674239405329831953e+00
-5.292871677724014567e+00
-2.766082837668770722e+00
-2.180336601219552417e-01
1.735542238321022834e+00
2.750045955733896541e+00
1.796189673549434263e+00
1.230484434469060195e-01
-6.441811085024876093e-02
-1.355352374232241253e-01
5.665574915211466500e-01
1.843278554641571088e+00
2.431200695054961169e+00
2.354999200310274432e+00
1.508096036665057094e+00
-7.356779255848134857e-01
-2.248839280217125758e+00
-4.100689329946027861e+00
-5.398455038506137171e+00
-5.601056653068670954e+00
-5.386717018475029484e+00
-5.911751863145624064e+00
-6.489992036604435910e+00
-6.515076145489034687e+00
-6.688748422247495995e+00
-6.670907717366080014e+00
-6.235439968715633441e+00
-6.791586249841231826e+00
-6.213032866903189344e+00
-4.751130968294852153e+00
-2.243802758413754983e+00
2.781050487202624821e-01
1.644819755545574136e+00
2.474516787136296969e+00
1.836015642406273685e+00
1.012186381381799505e+00
8.795975710602357278e-01
1.585314436880053801e+00
1.914830174471303215e+00
2.070148031263347121e+00
2.366130586323476503e+00
1.814494675104101118e+00
4.917040664016219531e-01
-1.300935720955368469e+00
-2.992026788772788937e+00
-4.471291512999697737e+00
-5.445945454492603588e+00
-5.738851707339095221e+00
-6.014076217818544734e+00
-5.929959907365009109e+00
-6.199703248739632855e+00
-6.490000000000036628e+00
-6.699990168593690676e+00
-6.463815182433569895e+00
-6.621900407994044890e+00
-6.961183516332573262e+00
-6.878950282197717314e+00
-4.492085758978534571e+00
-1.947699251887247796e+00
-2.326495612502250607e-02
1.230341749869706902e+00
2.163475464226395584e+00
2.091907624745280803e+00
1.547467214262551183e+00
1.619680035270202767e+00
2.019221697414167238e+00
2.831710664947974188e+00
3.232314321294578185e+00
2.992495632260745442e+00
1.456282877982070234e+00
-1.175973569517246714e-01
-2.021771607739611731e+00
-3.903501594234422889e+00
-4.771318093378124736e+00
-5.190241618269352486e+00
-5.309299389964791338e+00
-5.975216288026264699e+00
-6.254337208886160404e+00
-6.489999999754846982e+00
-6.649999999999534062e+00
-6.359563601819928635e+00
-6.721907598074380985e+00
-6.745865584929677361e+00
-7.762147100239403130e+00
-6.428285256729223462e+00
-4.529511049143198242e+00
-2.294899835401661203e+00
1.278014053170174469e-01
1.321752067617105730e+00
1.967443006820654094e+00
2.202311527572422545e+00
1.504669313530156316e+00
2.291597744190792429e+00
2.867533074739125443e+00
3.146569149844901325e+00
3.480171079974531789e+00
2.615965510592141552e+00
5.126946301417332208e-01
-1.114990458645863658e+00
-2.036992952646889954e+00
-4.079232550549991565e+00
-4.859675201601504568e+00
-5.307527344139572278e+00
-5.193905628153206777e+00
-5.996157373309621619e+00
-6.325000911307550489e+00
-6.277092512959422166e+00
-6.679999999999930438e+00
-6.869999999999973461e+00
-6.229087084881557601e+00
-6.763792461038292458e+00
-7.294454491096912463e+00
-7.022388928131930719e+00
-4.604294911509764887e+00
-1.958327346555917892e+00
-6.944100762439849028e-02
9.319081635895322124e-01
1.497226411492965648e+00
2.420483169381598465e+00
2.493945355193195823e+00
2.987693487112050406e+00
2.876664306222676437e+00
3.732160637263215452e+00
2.870982284624100433e+00
2.282264630151404905e+00
1.015894250613694760e+00
-6.952997135908274284e-01
-2.122033350405052587e+00
-3.861922512487881320e+00
-4.543087930048735679e+00
-5.052698231029752129e+00
-5.570600173720687387e+00
-6.025826814205122339e+00
-6.373914846156672809e+00
-6.679999999167803182e+00
-6.639997934767823295e+00
-6.579999820597440596e+00
-6.118616563255727669e+00
-6.845769224237315598e+00
-6.942608027253475811e+00
-5.695585396367385478e+00
-4.507250711997460968e+00
-2.343286018986645569e+00
-5.518414246580196636e-01
3.635598089912822628e-01
1.553457170171322677e+00
2.038202043417230769e+00
2.804903169114621786e+00
2.949899873977363640e+00
3.370453251499728520e+00
2.839326119195593190e+00
2.736926518280728970e+00
1.905157463140966012e+00
6.402767818120677079e-01
-4.912557904011054244e-02
-1.112888944891680776e+00
-2.882164414542813802e+00
-4.790280171891475369e+00
-5.102428074207142394e+00
-5.670575366631410930e+00
-6.018751917783334626e+00
-6.569954817758803856e+00
-6.589999943701584151e+00
-6.500000000000003553e+00
-6.319999999999986073e+00
-6.299883914998144263e+00
-6.705496829096035505e+00
-7.109067173502164216e+00
-5.271598931606349403e+00
-4.451828464465141799e+00
-2.087066683394736888e+00
-1.082929101028398344e+00
4.141518025415840132e-01
1.320727274457200728e+00
2.237178046232124018e+00
2.451111592664565908e+00
2.642740692343928721e+00
2.225664409191539850e+00
1.932375380098563911e+00
2.094732825753121475e+00
1.907754921154063421e+00
6.260394920559194665e-01
2.671937921439656582e-01
-1.329059320958073442e+00
-2.389896351909578165e+00
-3.796004685886399610e+00
-4.696706670416753937e+00
-5.085166994477366309e+00
-6.326349337869149991e+00
-6.224654855264518893e+00
-6.649999999430889375e+00
-6.579927220408815280e+00
-6.439999999994101110e+00
-6.106186287963606851e+00
-6.250964512931489914e+00
-6.418179106751581209e+00
-4.936803542881722962e+00
-3.327726220555994541e+00
-2.557096323263397863e+00
-5.879402451231420246e-01
6.348738752132112584e-01
1.705258683822399979e+00
1.932713183733224094e+00
2.096798067778633978e+00
1.083096054900200667e+00
1.626039259064059550e+00
1.506796446053644711e+00
1.483531336672522905e+00
1.702595474239860129e+00
6.748934837833542311e-01
-1.925368386524098016e-02
-9.711003624720948579e-01
-2.083307758702981349e+00
-3.337808978659146941e+00
-4.142935468582130909e+00
-4.951140970189054080e+00
-6.096907143937036366e+00
-6.477644560562849207e+00
-6.460000000000010623e+00
-6.369260955852887207e+00
-6.489999995958328327e+00
-6.077967187252363068e+00
-6.006022353885319021e+00
-6.564666984386715143e+00
-5.407234151998141947e+00
-3.880658312911995811e+00
-2.060270555842889539e+00
-1.993417303885520464e-01
1.661825055290692355e+00
1.884840427825665410e+00
2.078777737778556123e+00
2.033868663028715051e+00
6.632155205439950185e-01
1.197092818247180279e+00
1.983799775635203266e+00
1.833516751317613824e+00
8.787515206907141607e-01
7.065313547913986136e-01
1.514125317502694468e-01
-1.261030561204376621e+00
-2.843044685570705887e+00
-3.727601393625501025e+00
-4.581484676704429937e+00
-5.403497002932646787e+00
-5.937763034589152333e+00
-6.236807808210504511e+00
-6.439999999999639790e+00
-6.559999999999996056e+00
-6.389999752729329074e+00
-6.315266097750273033e+00
-5.862211472334371898e+00
-5.830071186255222138e+00
-5.073776423221742604e+00
-3.728546769563349628e+00
-1.986719752797953431e+00
-4.001015573425210636e-01
1.330581922238675219e+00
1.765814620989345718e+00
1.878517001900767314e+00
1.458568972013038145e+00
1.307188259584306289e+00
1.641534079254028278e+00
2.406921737071397338e+00
1.826527966862255159e+00
1.579110241723356678e+00
5.343564836858706313e-01
-3.934325146155646102e-01
-1.969195480588618707e+00
-2.800674472094046408e+00
-3.937753630317583298e+00
-5.094404014932935709e+00
-5.546250899669662893e+00
-5.612313104158505261e+00
-6.338345641460595203e+00
-6.670269474108601493e+00
-6.719999996726239821e+00
-6.479895821268773837e+00
-5.808410629534481728e+00
-6.041934525629166330e+00
-6.234772919203643404e+00
-4.424921785481715553e+00
-4.010259412952974500e+00
-2.234361133099346031e+00
-6.201409591878195293e-01
9.514054478358326961e-01
1.932799342999038883e+00
1.635426777520913699e+00
1.897200993039280137e+00
2.001524996957396052e+00
2.213003687841830658e+00
2.213951681939609450e+00
1.867325267890601825e+00
1.225064523821663975e+00
-1.183978604435751564e-01
-1.424935112086405553e+00
-2.145416407869545239e+00
-3.281080713585478481e+00
-4.423004884716541518e+00
-5.303321965552331818e+00
-5.472923503769496989e+00
-5.846849018083768001e+00
-6.117784608020174097e+00
-6.649946944169353280e+00
-6.599999999809591955e+00
-6.379195454827446987e+00
-6.190523450732189126e+00
-6.050515993137223880e+00
-5.976484908881613656e+00
-4.944239821211801278e+00
-3.984292573088302980e+00
-2.777074611079930033e+00
-1.260161313084619650e+00
-3.318208169100259758e-02
9.239069334413619883e-01
2.061811662581825022e+00
2.645475849532647583e+00
2.670888780450194400e+00
2.627639779576073309e+00
1.944385629350714684e+00
1.222997396186875196e+00
1.678872487145953996e-01
-8.300703494320738063e-01
-2.010315675213520503e+00
-3.185700263964717838e+00
-4.149330810554849869e+00
-4.327809838676584420e+00
-5.437436050791472297e+00
-5.836996301113249075e+00
-6.153837693570403111e+00
-6.249999999999991118e+00
-6.499866234642762919e+00
-6.899999999999978151e+00
-6.549999999999961631e+00
-6.142597415543144201e+00
-5.944732662234708087e+00
-5.782270595302237304e+00
-5.745137364365040078e+00
-4.742189942088347543e+00
-3.266383672480635436e+00
-2.381987333020576969e+00
-1.496860968818869431e+00
-6.133957980360784518e-03
7.015419861622100850e-01
1.754590127652991827e+00
2.010446815682774613e+00
1.537979431173970735e+00
6.263917123308104795e-01
-1.936824914141961618e-02
-1.167110896992037627e+00
-2.027721988168208256e+00
-3.211214260809742260e+00
-3.558352309567710314e+00
-4.109399507787199646e+00
-4.846944105234729072e+00
-5.309556239756552110e+00
-5.850942836869422514e+00
-6.355661486415044692e+00
-6.369713679155122321e+00
-6.499999999979165111e+00
-6.729999999999217053e+00
-6.540000000000006253e+00
-6.539983348133960206e+00
-6.332982123988548651e+00
-6.714928612229510207e+00
-6.912473354642706624e+00
-6.035007346777697457e+00
-5.865586879534004261e+00
-5.498687446300078996e+00
-4.740849014394748373e+00
-3.010240555082825065e+00
-1.446187229495484949e+00
-1.270467932696413449e+00
-7.572453887427863517e-01
-1.112050440108226734e+00
-1.526615733895384075e+00
-1.686613665923215377e+00
-2.126977058137669019e+00
-3.531337859806282786e+00
-3.990209981652353299e+00
-4.468688240865293260e+00
-4.816966027994423527e+00
-5.501274433806258024e+00
-6.027750156475269350e+00
-6.130000724385110900e+00
-6.310001328074601012e+00
-6.459713679155111521e+00
-6.589999999999943903e+00
-6.719999999999946461e+00
-6.660000000000005471e+00
-6.597644935651372222e+00
-6.415690529805393894e+00
-6.375672461048564443e+00
-6.444401249250637953e+00
-5.788788838545797510e+00
-6.144818554163235191e+00
-5.374338753418686387e+00
-4.687848251517106490e+00
-4.198043375017840084e+00
-3.614806801197297581e+00
-3.413635925471252719e+00
-3.150101764483689060e+00
-3.170033365182692187e+00
-3.470107491935773947e+00
-3.541337259600316756e+00
-4.448627509903213095e+00
-4.811246415411481792e+00
-5.114903495931438115e+00
-5.598192770333946022e+00
-5.869020771517162949e+00
-6.069844656156748286e+00
-6.481245268234547829e+00
-6.389981499742524385e+00
-6.420001328064085300e+00
-6.499996191132623835e+00
-6.665878523175887693e+00
-6.809999999999960529e+00
-6.530000000000002025e+00
-6.629981500575691022e+00
-6.789999999978714840e+00
-6.458984893742497846e+00
-6.106999809186621775e+00
-6.621375316078737860e+00
-6.854038451704059121e+00
-6.576523166529025133e+00
-6.725460608127758810e+00
-6.671239895391804176e+00
-6.462094894292607528e+00
-6.164248025807888887e+00
-5.968557082955422644e+00
-6.355258260163717310e+00
-6.738540671930152826e+00
-6.455026968781589325e+00
-6.985533044078317211e+00
-6.665470684340258245e+00
-6.606148774282441849e+00
-6.526708996958530129e+00
-6.060937086164083887e+00
-6.478580750169689040e+00
-6.578749999999993214e+00
-6.539999999999635882e+00
-6.579777334963205604e+00
-6.529999999995222737e+00
-6.599999999999337064e+00
-6.706769459055350602e+00
-6.509999999946194826e+00
-6.469999999999950901e+00
-6.268986222020439314e+00
-6.599999999999980105e+00
-6.513245740804948447e+00
-6.402495268235133707e+00
-6.380481963227460085e+00
-6.630002013043480247e+00
-6.538464810496597224e+00
-6.777593483861104495e+00
-6.756736333649000947e+00
-6.787357656553766105e+00
-6.774303810977070128e+00
-6.855971640819578106e+00
-6.687486121475194167e+00
-6.717037935827671724e+00
-6.879975119826786667e+00
-6.786845208008339014e+00
-6.655442477631133613e+00
-6.295220043185628001e+00
-6.599998360394310204e+00
-6.604529050543402668e+00
-6.369999999999998330e+00
-6.549999624913782625e+00
-6.459999999999921805e+00
-6.269999999999965823e+00
-6.529999999999915872e+00
